digraph Tree {
node [shape=box] ;
0 [label="resp_p <= 444.0\ngini = 0.498\nsamples = 2600\nvalue = [1381, 1219]"] ;
1 [label="orig_p <= 49161.0\ngini = 0.137\nsamples = 1313\nvalue = [97, 1216]"] ;
0 -> 1 [labeldistance=2.5, labelangle=45, headlabel="True"] ;
2 [label="gini = 0.0\nsamples = 38\nvalue = [38, 0]"] ;
1 -> 2 ;
3 [label="gini = 0.088\nsamples = 1275\nvalue = [59, 1216]"] ;
1 -> 3 ;
4 [label="orig_p <= 546.5\ngini = 0.005\nsamples = 1287\nvalue = [1284, 3]"] ;
0 -> 4 [labeldistance=2.5, labelangle=-45, headlabel="False"] ;
5 [label="gini = 0.375\nsamples = 4\nvalue = [1, 3]"] ;
4 -> 5 ;
6 [label="gini = 0.0\nsamples = 1283\nvalue = [1283, 0]"] ;
4 -> 6 ;
}